{
    "metadata": {
        "modelName": "Simple microphysics",
        "modelAuthor": "Inference Engine",
        "compilationDate": "20240402",
        "activationFunction": "sigmoid",
        "usingSkipConnections": false
    },
    "tensor_range": {
      "layer": "inputs",
      "minima": [29671.1348,291.951813,236.352524,0.179895840E-3,0.00000000,-0.153018260E-14,0.00000000],
      "maxima": [98596.7578,341.963928,307.610779,0.140257832E-1,0.917349884E-3,0.112974260E-3,0.602247310E-3]
    },
    "tensor_range": {
      "layer": "outputs",
      "minima": [-420.930176,-0.174474344,-0.102060735,-0.596355908E-1,-0.362295300],
      "maxima": [574.870605,0.135073870,0.155310392,0.403279096,0.445222482E-1]
    },
     "hidden_layers": [
         [
             {
                "weights": [1.04031360,0.322023779E-1,-0.165976994E-1,0.232792478E-1,-0.724030600E-3,-0.297474097E-1,-0.391393304E-1],
                 "bias": -0.478758700E-1
             },
             {
                "weights": [-0.257854182E-1,1.01238787,0.412851572E-1,-0.471764803E-1,0.402146690E-1,0.406599008E-1,-0.421936512E-1],
                 "bias": 0.135109178E-2
             },
             {
                "weights": [-0.360141285E-1,-0.482648537E-1,0.959892035,0.239124130E-1,0.352355838E-1,-0.495112352E-1,-0.346002318E-1],
                 "bias": -0.357910944E-2
             },
             {
                "weights": [0.264188107E-1,-0.450627282E-1,-0.490054972E-1,0.984229147,0.281829722E-1,0.914781820E-2,0.141085377E-1],
                 "bias": -0.497483499E-1
             },
             {
                "weights": [-0.437888801E-1,0.190485604E-1,0.257831626E-1,-0.467752479E-1,0.958387613,0.235177055E-1,-0.317317583E-1],
                 "bias": 0.435235724E-1
             },
             {
                "weights": [0.476483330E-1,0.255966149E-1,0.406896286E-1,-0.195718799E-1,0.131469006E-1,0.986257672,0.335898586E-1],
                 "bias": -0.167087838E-1
             },
             {
                "weights": [0.353314206E-1,-0.493066274E-1,-0.208299514E-1,0.449507721E-1,0.294201244E-1,-0.175863376E-2,0.976797044],
                 "bias": -0.444400422E-1
             },
             {
                "weights": [-0.231882576E-1,-0.414279737E-1,-0.462422296E-1,-0.423526615E-1,0.111685302E-1,-0.265928302E-1,-0.483614020E-2],
                 "bias": 0.464079753E-1
             },
             {
                "weights": [0.839362945E-2,0.419007204E-1,0.530020567E-2,-0.354937725E-1,-0.314601324E-1,0.762424374E-3,0.434446521E-1],
                 "bias": 0.352393351E-1
             },
             {
                "weights": [-0.325901918E-1,0.106969578E-1,-0.477575846E-1,0.386823937E-1,-0.134392120E-1,0.422561681E-2,-0.455244891E-1],
                 "bias": 0.980415754E-2
             },
             {
                "weights": [-0.448688455E-1,-0.621620705E-2,0.479251891E-2,-0.923463050E-2,-0.185674038E-1,-0.881632697E-2,0.407826640E-1],
                 "bias": 0.554909278E-2
             },
             {
                "weights": [0.677510339E-3,0.480184369E-1,0.231621582E-1,0.444221422E-1,0.755340094E-2,-0.491194874E-1,-0.317271613E-1],
                 "bias": 0.249031316E-1
             },
             {
                "weights": [-0.181035988E-2,0.160504133E-1,-0.403325334E-1,-0.290787476E-2,0.111238435E-1,0.118750790E-1,0.220836401E-1],
                 "bias": 0.522032147E-3
             },
             {
                "weights": [-0.131875649E-1,-0.777785853E-2,0.198959932E-2,-0.511918776E-2,0.279001556E-1,-0.252603851E-1,0.119943088E-1],
                 "bias": -0.431641527E-1
             },
             {
                "weights": [0.368323154E-2,0.910882186E-2,-0.204634964E-1,0.279555060E-1,0.246746819E-1,-0.449073240E-1,0.470662676E-1],
                 "bias": -0.614884123E-2
             },
             {
                "weights": [0.427935608E-1,0.123751406E-1,-0.403294936E-1,0.315525010E-1,-0.873842370E-2,-0.932365190E-2,-0.596283702E-2],
                 "bias": 0.932470430E-2
             },
             {
                "weights": [-0.190956444E-1,0.165774729E-1,0.495117120E-1,0.136967637E-1,0.179396402E-1,-0.153351659E-1,-0.196740627E-1],
                 "bias": 0.226016343E-1
             },
             {
                "weights": [0.113852536E-1,-0.137735782E-1,0.378445871E-1,0.136048887E-1,-0.307097621E-1,0.174089149E-1,-0.356622823E-1],
                 "bias": 0.494920611E-1
             },
             {
                "weights": [0.240138993E-1,0.118914442E-1,-0.615188014E-2,-0.186273996E-1,0.403308012E-1,-0.344230630E-2,0.271901228E-1],
                 "bias": 0.320058800E-1
             },
             {
                "weights": [-0.451063626E-1,-0.633128267E-2,-0.323333070E-1,0.433552153E-1,-0.380406044E-1,-0.447563045E-1,-0.315341204E-1],
                 "bias": 0.201995168E-1
             },
             {
                "weights": [-0.158199784E-2,0.244752988E-1,0.428330451E-1,0.948579889E-2,-0.912727788E-2,0.131151145E-1,0.980197173E-2],
                 "bias": -0.223082043E-1
             },
             {
                "weights": [0.272894334E-1,0.440234244E-1,-0.299880728E-1,-0.618282426E-2,0.336710699E-1,0.369685404E-1,-0.289033893E-1],
                 "bias": -0.247235522E-1
             },
             {
                "weights": [-0.437279940E-1,0.343750343E-1,0.254209395E-1,0.209046900E-2,0.103691760E-1,0.171839949E-1,0.378078744E-1],
                 "bias": 0.459641144E-1
             },
             {
                "weights": [0.160398381E-2,0.392804146E-1,-0.129788192E-1,0.293245837E-1,-0.443569608E-1,0.960046612E-2,-0.271743461E-1],
                 "bias": -0.281769689E-1
             },
             {
                "weights": [0.193545111E-1,-0.433718152E-1,-0.379607454E-1,-0.334420241E-1,0.289378054E-1,0.256597456E-1,-0.914006680E-2],
                 "bias": -0.278911106E-1
             },
             {
                "weights": [-0.177023336E-1,0.223247651E-1,-0.741632469E-2,-0.221827324E-2,0.292180181E-1,0.421612225E-1,-0.212839320E-1],
                 "bias": -0.122485477E-1
             },
             {
                "weights": [0.391469225E-1,-0.512748957E-2,0.256903972E-1,0.402623266E-1,0.206546914E-1,0.901758205E-2,0.109076547E-1],
                 "bias": 0.258540809E-1
             },
             {
                "weights": [0.329665020E-1,0.697547616E-2,0.409119725E-1,0.439323578E-2,0.474915244E-1,0.119950175E-1,-0.248912014E-1],
                 "bias": -0.429746285E-1
             },
             {
                "weights": [0.203353968E-1,0.783293881E-2,-0.181943867E-1,-0.414516367E-1,-0.450911075E-1,-0.219363589E-1,0.135641256E-1],
                 "bias": -0.415886864E-1
             },
             {
                "weights": [-0.290961321E-1,0.652073836E-2,-0.207452918E-2,-0.248467550E-2,0.878862478E-2,0.266248379E-1,0.226845276E-1],
                 "bias": 0.823278073E-2
             },
             {
                "weights": [-0.191310011E-1,0.170059055E-1,0.236265752E-1,0.260689370E-1,0.437494330E-1,-0.163947381E-1,-0.398036838E-2],
                 "bias": 0.343295489E-2
             },
             {
                "weights": [0.464558788E-1,-0.477112830E-1,-0.104819983E-1,0.451794341E-1,0.227995906E-1,0.411351472E-1,0.239712801E-1],
                 "bias": 0.854268030E-3
             }
         ],
         [
             {
                "weights": [0.975429714,-0.907156058E-2,-0.332258176E-2,-0.428218544E-1,0.349108092E-1,0.703930855E-2,-0.113588560E-2,0.469875000E-1,-0.204281006E-1,0.351636969E-1,-0.415021405E-1,0.413877554E-1,0.183787718E-1,-0.463538244E-1,-0.326770470E-1,-0.194305647E-1,-0.549533684E-2,0.152029274E-1,-0.296827108E-1,-0.122364759E-1,-0.136815989E-1,-0.491215028E-1,-0.229078829E-1,0.202710629E-1,-0.183083322E-1,0.324026123E-1,-0.481966510E-1,-0.421317406E-1,-0.289674327E-1,0.804390851E-2,-0.312946923E-1,-0.485275500E-1],
                 "bias": 0.312109590E-1
             },
             {
                "weights": [-0.367184207E-1,0.958070219,0.947289262E-2,0.472404249E-1,0.198605992E-1,0.264282469E-1,-0.372235402E-1,0.367353074E-1,-0.210672989E-1,-0.228037387E-1,-0.218362547E-1,0.341964625E-1,-0.478107259E-1,-0.195649061E-1,0.693575363E-3,-0.122076627E-1,0.489735007E-1,-0.304302853E-1,0.194521099E-1,0.284148473E-1,-0.201780200E-1,-0.714320503E-2,-0.481605753E-1,0.625577741E-4,0.369268209E-1,-0.340826809E-1,-0.135396216E-1,0.187786072E-1,0.140384538E-1,0.290410537E-1,-0.211113971E-1,-0.491238460E-1],
                 "bias": -0.324886739E-1
             },
             {
                "weights": [-0.299751596E-2,-0.280097015E-1,0.953415632,-0.463634059E-1,0.283089429E-1,-0.442945166E-2,0.483305641E-1,0.303884428E-1,-0.380825438E-1,0.240467489E-1,0.609735353E-2,-0.387896486E-1,-0.474163257E-1,0.125497421E-1,0.118583543E-1,0.252542887E-1,0.141117126E-1,0.314274356E-1,-0.282789748E-1,0.192579571E-1,-0.447058082E-1,0.705014216E-2,0.278763566E-1,0.368975140E-1,-0.393741727E-1,0.225054678E-1,0.174033623E-1,-0.171390064E-1,-0.255421586E-1,-0.369434096E-1,0.482047945E-1,-0.186073408E-1],
                 "bias": -0.336469822E-1
             },
             {
                "weights": [0.342436088E-2,-0.318766199E-1,0.349520193E-2,0.985482275,-0.490158983E-1,-0.127961839E-4,-0.271371733E-1,-0.104335379E-1,0.296599418E-1,0.135740982E-1,-0.284313248E-2,-0.157056861E-1,-0.283318087E-1,0.692243921E-2,0.653780904E-2,-0.298751127E-1,0.445424244E-1,-0.171430800E-1,-0.546368130E-3,0.364194401E-1,-0.292375777E-1,0.293603021E-3,-0.499748588E-1,0.331290439E-1,0.304648057E-1,0.188432578E-1,0.239392258E-1,0.314427428E-1,0.408509634E-1,0.158190522E-1,-0.269563366E-1,0.114108939E-1],
                 "bias": -0.458187759E-1
             },
             {
                "weights": [-0.548766507E-2,0.222537690E-2,-0.344105288E-1,-0.133069577E-1,1.03111005,0.421764292E-1,0.958978292E-2,-0.301862881E-1,-0.396071896E-1,-0.147991646E-1,-0.372320935E-1,0.527312458E-1,0.496780686E-1,0.920212734E-2,-0.414593108E-1,0.112151552E-2,0.404685140E-1,-0.629353663E-2,-0.719651394E-2,0.281383432E-1,-0.383975431E-1,0.256927889E-1,-0.429568887E-1,-0.367625058E-1,-0.292892959E-1,-0.362454876E-1,0.217570346E-1,-0.518814707E-2,-0.426805243E-1,-0.207946580E-1,0.379962660E-1,0.419983976E-1],
                 "bias": 0.129256705E-1
             },
             {
                "weights": [0.137077766E-1,-0.446734875E-1,0.388937853E-1,0.157225840E-1,-0.300706681E-1,0.954517424,-0.422778204E-1,0.219249539E-1,-0.700848829E-2,0.271169897E-1,0.353959538E-1,-0.464143455E-1,0.352292098E-1,0.843770895E-2,-0.423177667E-1,0.607680762E-2,0.348730795E-1,-0.298690144E-1,0.474864691E-1,-0.176429395E-1,0.279794727E-2,0.431793407E-1,0.562516646E-2,-0.410974734E-1,0.427197069E-1,-0.350328498E-1,-0.344397761E-1,0.213115532E-1,-0.140980566E-1,0.104390159E-1,-0.175345484E-1,-0.296661793E-2],
                 "bias": 0.199708715E-1
             },
             {
                "weights": [0.108662192E-1,-0.483801402E-1,0.240151901E-1,0.474458933E-1,-0.465593822E-1,-0.260451436E-1,0.988305449,-0.231965370E-1,0.462833680E-1,-0.245167525E-2,-0.245248917E-1,-0.178129598E-1,-0.517445523E-2,0.361255445E-1,0.447673770E-2,-0.210230947E-1,0.202606972E-1,0.155250527E-3,0.448786058E-1,0.488279872E-1,-0.258508250E-1,0.221674498E-1,0.184823535E-1,0.323945917E-1,0.941404887E-2,-0.472335964E-1,0.259627076E-2,-0.480644070E-1,0.139897718E-3,0.265584309E-1,-0.498721935E-2,0.162464119E-1],
                 "bias": 0.191721227E-2
             },
             {
                "weights": [0.396241546E-1,0.266278498E-1,-0.199725945E-1,0.962405466E-2,-0.801421516E-2,-0.249463487E-1,0.412927847E-2,1.00539112,0.271889996E-1,0.391743556E-1,-0.165738482E-1,-0.828115456E-2,0.746091781E-2,-0.455097388E-2,0.135919070E-1,-0.252542309E-1,-0.292872917E-2,-0.355327614E-1,-0.465787649E-1,-0.227812901E-1,0.468896180E-1,0.252496824E-1,0.161921568E-1,0.189775825E-1,0.342663862E-1,0.207609758E-1,0.486619882E-1,-0.303875878E-1,-0.361291729E-1,-0.117076247E-2,-0.459502311E-2,-0.428759903E-1],
                 "bias": 0.323161297E-1
             },
             {
                "weights": [0.329737589E-1,0.183168072E-1,0.210888255E-1,-0.348809659E-1,0.205861181E-1,0.115730017E-1,-0.142011652E-1,-0.204224717E-1,0.951223135,-0.204798300E-1,-0.425655656E-1,0.131877577E-1,0.535979401E-2,-0.496944226E-2,0.450703725E-1,-0.448388308E-1,0.126052704E-1,0.429723784E-1,-0.375697464E-1,0.964600418E-3,-0.116720404E-1,-0.220428705E-1,-0.174630638E-1,0.134837283E-1,-0.953195430E-2,0.374052599E-1,-0.270753261E-1,0.428403320E-3,-0.376359411E-1,0.256915553E-2,-0.127698090E-1,0.298789963E-1],
                 "bias": 0.178919826E-2
             },
             {
                "weights": [0.475901979E-4,0.764177414E-2,-0.282127094E-1,0.188242982E-2,0.291534085E-1,0.172570460E-1,0.412538648E-1,0.442216583E-1,-0.403003208E-1,1.04386473,-0.238460060E-1,0.442451239E-2,-0.458612740E-1,0.301552843E-1,-0.798145309E-2,0.423456281E-1,0.273815580E-1,-0.367293954E-1,0.306873377E-1,-0.200141445E-1,0.178426933E-1,-0.373261683E-1,-0.225873031E-1,0.499774069E-1,0.202018004E-1,0.130634643E-1,-0.247671772E-1,-0.147460774E-1,-0.293923635E-1,0.432385541E-1,0.491276458E-1,-0.435353778E-1],
                 "bias": 0.443618633E-1
             },
             {
                "weights": [0.482542859E-2,-0.470331088E-1,0.478213690E-1,0.187378246E-1,0.280551687E-1,-0.405363925E-2,-0.261594895E-1,-0.257620160E-1,0.367157273E-1,-0.127447154E-1,0.951936424,0.265087094E-1,-0.528600533E-2,0.146639757E-1,-0.209283549E-1,-0.197669473E-1,0.428388156E-1,0.235926230E-1,0.357841402E-1,-0.178977661E-1,0.414574295E-1,-0.337403291E-2,0.331609361E-1,0.278540738E-1,0.500993170E-1,0.122204830E-2,-0.193162262E-1,-0.356432199E-1,-0.413521007E-1,0.484106131E-1,0.188132562E-1,0.201367587E-1],
                 "bias": 0.220977310E-1
             },
             {
                "weights": [-0.359277502E-1,-0.367817245E-1,0.321908891E-1,-0.163056273E-1,0.864691474E-2,-0.159508456E-1,0.400521383E-1,-0.382957421E-1,0.403982913E-2,0.229407810E-1,-0.185412131E-1,1.03971851,-0.178847257E-1,-0.404668897E-1,-0.892138947E-2,0.227374993E-1,-0.431292923E-2,0.553624658E-2,-0.117612313E-1,-0.223523621E-1,-0.780016882E-2,0.178235583E-1,-0.462435037E-1,0.431320444E-1,0.176628632E-2,0.401603207E-1,-0.428136857E-2,0.168223884E-1,-0.352347922E-2,0.389370732E-1,0.311497785E-1,-0.285101756E-1],
                 "bias": -0.309120100E-1
             },
             {
                "weights": [0.278152190E-1,-0.316704698E-1,0.258422038E-2,0.117476622E-2,0.458178706E-1,-0.213860273E-1,-0.286491849E-1,0.229613446E-1,-0.361700729E-1,-0.323064551E-1,0.268592462E-1,0.314699486E-1,0.971712351,0.454524644E-1,-0.407686690E-2,-0.148727000E-1,0.386577211E-1,0.923296344E-2,0.261504930E-1,-0.150637412E-1,0.410698429E-1,0.163502619E-1,0.241963398E-1,0.239705257E-1,-0.375321321E-1,-0.182186160E-1,0.337678865E-1,-0.266563930E-1,-0.219961256E-1,0.420041680E-1,0.354793877E-2,-0.101042930E-1],
                 "bias": -0.214423761E-1
             },
             {
                "weights": [0.117783314E-1,-0.151573652E-1,-0.440965742E-1,0.312089715E-1,0.457356833E-1,0.472935922E-1,0.354448967E-1,-0.297356583E-1,0.245504058E-2,-0.357170887E-1,0.246337783E-1,0.369597599E-1,-0.383425467E-1,1.00052631,0.128488177E-1,-0.156288873E-1,-0.489777178E-1,0.897261873E-2,0.311569534E-1,-0.467370264E-1,0.262888484E-1,0.112183755E-1,0.447100550E-1,-0.149189625E-1,0.354792066E-1,-0.485287048E-1,-0.162933506E-1,-0.443977565E-1,0.141992243E-1,-0.160844680E-1,0.250133425E-1,0.454741530E-1],
                 "bias": -0.185651965E-1
             },
             {
                "weights": [0.402735770E-1,-0.444931053E-1,0.138087792E-2,-0.177451894E-1,-0.167428218E-1,0.128917452E-1,-0.232478920E-1,-0.767850876E-2,-0.292959604E-1,-0.303747458E-2,-0.356917121E-1,0.146356290E-1,0.238057580E-1,0.112362299E-1,0.999234438,-0.215849075E-1,-0.134667745E-1,-0.428403206E-1,0.217630155E-1,0.105561940E-1,0.432891771E-1,-0.182023533E-1,0.629375922E-2,-0.178050529E-1,-0.358854979E-1,-0.320739895E-1,-0.124739623E-1,-0.172577091E-1,0.421120785E-2,-0.979273973E-4,-0.468456820E-1,0.493852235E-1],
                 "bias": -0.373125635E-1
             },
             {
                "weights": [-0.557526713E-3,-0.237038936E-1,0.267301630E-1,-0.441219918E-1,0.449822135E-1,-0.435666069E-1,-0.482706688E-1,0.346790701E-1,0.228749253E-1,0.162714031E-1,-0.458897799E-1,-0.264484086E-2,-0.452402271E-1,-0.411858894E-1,0.392184258E-1,0.965650380,-0.421799272E-1,0.134655358E-1,-0.102208052E-1,-0.340688117E-1,0.391576998E-1,0.419246592E-2,0.268635508E-1,-0.126560880E-1,-0.213634968E-1,-0.240019523E-2,0.190678593E-1,0.816731621E-2,0.159140285E-1,-0.257424414E-1,0.149596045E-1,-0.586446887E-2],
                 "bias": 0.385270640E-1
             },
             {
                "weights": [0.320826806E-1,0.299194977E-1,0.697007915E-2,0.852788519E-2,-0.234688688E-1,0.729421794E-3,-0.105119748E-1,0.451127328E-1,0.449788608E-1,0.148027958E-1,0.155464541E-1,0.598214567E-2,0.166344903E-1,-0.101042762E-1,0.474421587E-2,-0.497354753E-1,0.962201357,0.212670285E-1,0.319253579E-1,0.295789279E-1,0.283393767E-1,0.453062281E-1,-0.267142933E-1,-0.641675806E-2,-0.427125059E-1,0.151021429E-2,0.684947474E-2,0.313378684E-1,0.368053839E-1,0.136830881E-1,-0.743390236E-3,0.515529281E-2],
                 "bias": 0.403660908E-1
             },
             {
                "weights": [0.672587194E-3,0.482071564E-1,-0.205447692E-1,0.556603540E-2,0.374016492E-2,-0.245159846E-1,0.271853954E-1,-0.271639717E-2,0.113722337E-1,-0.227455087E-1,-0.191588774E-1,-0.143025145E-1,-0.279727262E-1,-0.402342714E-2,-0.400770530E-1,0.139354663E-1,-0.255712029E-1,1.00648189,0.317020938E-1,0.104384385E-1,0.493991561E-1,0.410708040E-1,0.261912798E-2,0.900117273E-3,0.184669290E-1,-0.330535471E-1,0.293880254E-1,0.386923254E-1,-0.259246211E-1,0.154260695E-1,0.325291418E-1,0.600146968E-2],
                 "bias": -0.474740118E-1
             },
             {
                "weights": [0.459091961E-1,0.460481010E-1,0.847771473E-3,0.102662817E-1,-0.223999396E-1,-0.134925661E-2,-0.167920142E-1,-0.256708022E-1,0.135851866E-1,-0.188492518E-1,0.371538885E-1,-0.694850320E-2,0.239493232E-1,0.569170946E-2,-0.121870553E-1,0.929012895E-2,-0.567187928E-2,-0.368114151E-1,0.994876325,-0.218373295E-1,-0.381747745E-1,0.189602356E-1,-0.363732912E-1,-0.418495424E-1,0.403252728E-1,-0.184128061E-1,-0.214312524E-1,-0.113656335E-1,-0.457929261E-1,-0.444976129E-1,0.390657932E-1,0.323045217E-1],
                 "bias": -0.317183472E-1
             },
             {
                "weights": [0.189693384E-1,0.360651687E-1,-0.237766420E-2,0.238401489E-2,0.116362544E-1,-0.206912346E-1,-0.478850938E-1,-0.316287205E-1,-0.353418514E-1,-0.361930020E-1,-0.166480895E-1,0.223259367E-1,-0.336308144E-1,0.305975266E-1,-0.495520420E-1,0.440824740E-1,-0.536903413E-2,-0.198444463E-1,0.275102016E-1,1.03060842,-0.336383586E-2,-0.248104129E-1,-0.343444347E-1,0.196414310E-1,0.397546440E-1,-0.372568034E-1,-0.429776125E-1,0.175018739E-1,0.662019011E-3,0.865086447E-2,-0.459441170E-1,-0.271420591E-1],
                 "bias": -0.328960307E-1
             },
             {
                "weights": [-0.384746515E-2,-0.130476588E-1,0.162224881E-1,0.154121965E-2,-0.228185356E-1,-0.260951780E-1,0.405905806E-1,-0.540646072E-2,0.425544493E-1,0.861362030E-3,-0.285591912E-1,-0.342284888E-1,0.361831449E-1,-0.633373205E-2,-0.458471328E-1,-0.280165654E-1,-0.379329324E-1,0.560403429E-2,-0.595072517E-2,0.893250946E-2,1.04237413,-0.361802429E-1,0.428959168E-1,0.479384139E-1,0.154369231E-1,0.277656764E-1,-0.266286116E-1,0.156971980E-1,0.161491577E-1,-0.896273553E-2,0.450026467E-1,-0.293076746E-1],
                 "bias": 0.467558168E-1
             },
             {
                "weights": [0.107057476E-1,0.390229262E-1,0.290943421E-1,0.160210638E-2,0.403265692E-1,0.324837770E-2,-0.236303322E-1,-0.498743765E-1,0.406194991E-2,0.431617200E-1,0.297387969E-1,-0.483917212E-2,-0.337298140E-1,0.252119172E-1,-0.101020262E-1,0.288681369E-1,-0.402682982E-1,-0.314604421E-2,0.366973802E-1,-0.744850747E-2,0.158917475E-1,0.977179229,0.342242159E-1,0.468303822E-1,-0.437558331E-1,0.231083594E-1,-0.160691375E-2,-0.158773307E-1,0.254241005E-1,-0.282651838E-1,0.409667194E-1,-0.214257371E-1],
                 "bias": 0.437346846E-1
             },
             {
                "weights": [-0.222683158E-1,-0.436764024E-1,0.110724177E-1,0.203542095E-1,-0.299744904E-1,-0.422146451E-2,0.160010196E-1,-0.573532050E-2,0.427655131E-1,-0.203769337E-1,-0.170269459E-1,-0.334362574E-1,-0.268592350E-1,-0.409078002E-1,0.453999965E-2,-0.189892408E-1,-0.287806876E-1,0.261061508E-1,-0.417304635E-1,-0.332366526E-1,0.159518309E-1,0.210123416E-1,1.00862038,-0.518846652E-2,-0.367502421E-1,0.492658168E-1,-0.479083182E-2,-0.254710205E-1,0.237638820E-1,-0.425554672E-2,0.981248799E-3,-0.617561257E-2],
                 "bias": -0.891761202E-2
             },
             {
                "weights": [0.386430137E-1,-0.113740275E-1,0.589441648E-2,0.217613671E-1,-0.862792600E-2,0.134563381E-1,0.307427365E-1,-0.335961170E-1,-0.391347520E-1,0.136338919E-1,-0.415684879E-1,0.402952544E-1,0.501919426E-1,0.376550481E-1,-0.219505299E-1,0.142504722E-1,0.196801755E-2,0.976822618E-2,0.260473229E-1,-0.625224970E-2,0.710011739E-2,-0.196505561E-1,0.351741724E-1,1.04058206,-0.129684247E-1,-0.242316052E-1,-0.309719425E-1,0.293915663E-1,0.439487770E-1,0.295104366E-1,-0.429584235E-1,-0.220203726E-2],
                 "bias": 0.135684982E-1
             },
             {
                "weights": [0.363014787E-1,0.458929799E-1,-0.458603725E-1,-0.134433163E-1,0.189205222E-1,0.543897459E-2,0.246512163E-1,0.179797485E-1,-0.218940526E-2,0.351482704E-1,-0.155289527E-1,0.988114811E-2,-0.271780491E-1,0.224870145E-1,0.274787880E-1,-0.124446591E-1,0.498287044E-1,-0.162116308E-1,0.214450061E-1,-0.113280844E-1,-0.339953825E-1,-0.275784750E-1,-0.225493722E-1,-0.343883112E-1,1.03692245,-0.282454807E-1,-0.367506668E-1,-0.447914144E-2,0.499025397E-1,-0.445048846E-1,0.390589237E-1,-0.469843782E-1],
                 "bias": 0.502292477E-1
             },
             {
                "weights": [0.460342243E-1,0.139287431E-1,-0.235499237E-1,0.337849781E-1,0.313530006E-1,0.105967205E-1,0.395123586E-1,-0.336812553E-2,0.306397788E-1,0.250626467E-1,-0.357138701E-1,0.338948816E-1,-0.631960295E-2,-0.104694879E-1,-0.237689298E-1,-0.270580202E-1,0.165738189E-2,0.211954005E-1,0.181249976E-1,0.381819368E-2,0.185024999E-1,-0.473212935E-1,0.463610925E-1,0.393720530E-1,0.492178984E-1,0.965865076,0.168818887E-1,-0.176006202E-1,-0.603181683E-2,-0.216371822E-2,0.378444120E-1,-0.313684121E-1],
                 "bias": 0.440017618E-1
             },
             {
                "weights": [0.136136459E-1,-0.167286284E-1,0.390215330E-1,-0.491513079E-2,0.275438894E-1,-0.292581823E-1,-0.120036537E-1,-0.288810525E-1,0.528707122E-2,-0.366675816E-1,-0.484428257E-1,0.412874576E-2,-0.252799839E-1,-0.158780590E-1,0.107370540E-1,0.313443765E-1,-0.263090674E-1,-0.423437953E-1,0.159833860E-1,0.433467154E-3,-0.103029823E-1,0.363045314E-3,-0.291330721E-1,0.367753170E-1,-0.372089259E-1,0.270881727E-1,0.985444725,-0.208515301E-1,0.280937962E-1,-0.322829839E-2,-0.102084298E-1,-0.319415070E-1],
                 "bias": 0.349194892E-1
             },
             {
                "weights": [0.473061204E-1,-0.103643341E-1,-0.466689765E-1,0.261996686E-1,-0.142885640E-2,-0.359966606E-1,0.446897335E-1,-0.380849428E-1,0.456013046E-1,0.572300749E-2,-0.272473339E-1,0.400516093E-1,0.474695582E-2,0.702819927E-2,0.125658419E-1,0.307131149E-1,0.397421271E-1,-0.270516742E-1,-0.683923438E-2,0.380617753E-1,-0.149615072E-1,-0.223324690E-1,-0.174440071E-1,-0.120488266E-1,0.427826308E-1,-0.138163439E-2,0.131230969E-1,0.952587605,-0.304418467E-1,-0.723951636E-2,-0.495959111E-1,0.271896701E-1],
                 "bias": -0.209265901E-2
             },
             {
                "weights": [0.257802196E-1,0.252469927E-1,-0.306037702E-1,0.353720635E-1,-0.352150425E-1,-0.353746256E-2,0.238044318E-1,0.872467458E-2,-0.136358934E-1,-0.276411753E-1,-0.243212916E-1,0.193252712E-1,-0.213359613E-1,0.173151921E-1,-0.248920396E-1,0.480339155E-1,0.242709592E-1,-0.102986246E-1,-0.688864617E-2,0.115856910E-1,0.415931977E-1,-0.457957797E-1,0.267412122E-1,-0.429020151E-1,0.179911230E-2,-0.454197526E-1,-0.112771820E-1,-0.376825184E-1,0.960631609,0.227543134E-1,-0.433260947E-1,0.491643250E-1],
                 "bias": -0.437676758E-1
             },
             {
                "weights": [0.273279939E-1,0.217397907E-2,0.417215861E-1,-0.477466471E-1,-0.220418833E-1,0.295370799E-1,0.168605391E-1,0.346896872E-1,-0.194004849E-1,-0.377869569E-1,0.151513740E-1,-0.188057348E-1,-0.257730410E-1,-0.444114953E-2,-0.179333985E-1,0.466048159E-1,-0.392498970E-1,0.277138576E-1,-0.202063061E-1,-0.301063042E-1,-0.251049493E-1,-0.334371291E-1,0.225725025E-1,-0.439818054E-1,0.488976464E-1,0.316281058E-1,0.220831241E-1,-0.507877674E-2,-0.266214088E-2,1.03916955,0.172806308E-1,-0.345057528E-2],
                 "bias": -0.478522703E-1
             },
             {
                "weights": [-0.435658768E-1,-0.100837077E-2,-0.379640199E-1,0.489698686E-1,-0.480195135E-2,-0.157120880E-1,0.104086129E-1,-0.196157750E-1,0.234670267E-1,-0.491748415E-1,-0.492705777E-1,-0.338546112E-1,0.181817356E-1,-0.247940216E-1,-0.469340459E-1,-0.968516804E-2,0.475808233E-1,0.828890037E-2,-0.184153169E-1,-0.368416458E-1,-0.516196853E-2,-0.123546133E-1,0.330454707E-1,-0.417429544E-1,0.313284881E-1,0.364768459E-2,0.940105319E-2,0.270768050E-1,-0.308688264E-1,-0.443897620E-1,1.01577854,-0.425136723E-1],
                 "bias": -0.484837443E-1
             },
             {
                "weights": [0.436970554E-1,-0.158580262E-1,0.473109670E-1,0.940811995E-3,-0.205421122E-2,0.372548848E-1,-0.427213684E-1,0.327619119E-2,0.244380198E-1,0.251572058E-1,-0.977259036E-2,-0.137418974E-2,0.487715192E-1,-0.425370783E-2,0.373736881E-1,-0.469104685E-1,0.251112673E-1,0.254194643E-1,-0.236427076E-1,0.117463293E-1,-0.433543026E-1,-0.559010589E-2,0.126936873E-1,-0.409644619E-1,0.163952485E-1,-0.444462784E-1,0.159600955E-1,-0.149769969E-1,-0.467928946E-1,0.159685556E-1,-0.481890403E-1,1.05019546],
                 "bias": 0.493476726E-1
             }
         ],
         [
             {
                "weights": [1.03621531,0.301291402E-1,-0.412110277E-1,0.310003236E-1,0.103591289E-2,-0.183199979E-1,-0.307054650E-1,0.848692469E-2,0.401939489E-1,-0.540877599E-2,-0.557312779E-1,-0.408305712E-1,0.433690213E-1,0.178640541E-1,-0.228604693E-1,0.695227785E-2,0.156312604E-1,0.185956694E-1,-0.359948464E-1,-0.383124501E-2,0.369273685E-1,-0.415080264E-1,-0.203051679E-1,-0.120833470E-1,-0.495527824E-2,0.164536983E-1,0.300981775E-1,0.334487483E-1,0.251651322E-2,0.415946245E-1,0.904821511E-2,0.983907841E-2],
                 "bias": 0.486368634E-3
             },
             {
                "weights": [-0.531479083E-1,0.992877185,-0.112629402E-1,0.266741775E-1,0.430456288E-1,-0.261564013E-1,-0.536113307E-1,-0.511847287E-1,0.188663080E-1,0.158745516E-1,-0.527630411E-1,-0.310521806E-2,0.393014364E-1,0.402349085E-1,0.658063823E-2,-0.441326462E-1,-0.448083580E-1,0.175479241E-1,-0.296723060E-1,-0.273743621E-2,-0.346940123E-1,-0.377120413E-1,-0.413209945E-1,-0.879977271E-2,-0.132110212E-1,0.832272321E-2,-0.441589169E-1,-0.279839225E-1,-0.277845506E-1,0.131407268E-1,0.127531402E-1,-0.347786173E-1],
                 "bias": -0.104728565E-1
             },
             {
                "weights": [0.294545963E-1,0.983414054E-2,0.964558780,0.514602428E-2,-0.463000573E-1,0.440444011E-3,-0.502896979E-1,-0.365190627E-2,0.185628943E-1,0.738076851E-4,0.244598407E-1,0.318294810E-2,0.266795736E-1,0.726672402E-2,0.126939239E-1,0.480108242E-2,0.316761956E-1,-0.112111755E-1,0.426206243E-3,-0.397049300E-1,0.158637986E-1,0.209232401E-1,-0.587737281E-2,-0.167336445E-1,-0.303631201E-1,-0.420628041E-1,-0.543795414E-1,0.372568853E-1,-0.351600796E-1,-0.205429811E-1,0.415528379E-1,-0.456987582E-1],
                 "bias": 0.376418345E-1
             },
             {
                "weights": [-0.372306928E-1,-0.637359619E-1,-0.154041247E-1,0.984089017,-0.710667595E-1,0.157642178E-1,-0.490707718E-1,-0.242688600E-1,-0.515709221E-1,-0.262726862E-1,-0.538216382E-1,0.149111552E-1,-0.433732197E-1,0.837923668E-3,0.271279691E-2,-0.596878789E-1,-0.196725167E-1,-0.138753897E-2,-0.545181371E-1,0.239641797E-1,-0.347066820E-1,0.110471612E-1,-0.533360317E-1,-0.481732972E-1,-0.397771411E-1,-0.324997678E-1,0.215740725E-1,0.133687006E-1,-0.634986013E-1,-0.261757392E-1,-0.170937497E-1,-0.485080853E-1],
                 "bias": -0.474110730E-1
             },
             {
                "weights": [-0.320721082E-1,-0.180500168E-1,0.549565591E-1,-0.314467624E-1,1.02988422,-0.240095370E-1,0.275079720E-1,-0.134525364E-1,0.603621602E-1,0.185061563E-1,0.362172574E-1,0.274938196E-1,0.298544187E-1,0.119625200E-1,0.340233999E-2,-0.129795657E-2,0.113528862E-2,0.475292653E-1,-0.330151245E-1,0.931985024E-2,0.330801271E-1,0.137226870E-1,0.591008328E-1,0.208596177E-1,0.410420038E-1,-0.167826079E-1,0.709441584E-2,0.733517576E-2,-0.245775357E-1,-0.300412346E-1,-0.214188136E-1,0.793557614E-2],
                 "bias": -0.148222549E-1
             },
             {
                "weights": [0.286565199E-1,-0.482829623E-1,0.449900515E-1,-0.151729118E-1,-0.229164399E-1,1.04865229,0.245106164E-1,0.435249275E-2,-0.287698638E-1,0.264676008E-1,0.435271785E-1,0.450668223E-1,-0.310609564E-1,-0.100566668E-2,0.463680215E-1,-0.191581938E-1,0.300335209E-2,0.106891780E-2,0.395087600E-1,0.308770649E-1,0.474254936E-1,0.179562327E-1,-0.191846453E-1,0.786184054E-2,-0.540690031E-2,-0.140486844E-1,0.815099978E-3,0.337632969E-1,0.343955979E-1,0.300412271E-1,0.178200584E-1,0.534523046E-3],
                 "bias": 0.118524889E-1
             },
             {
                "weights": [0.124127632E-1,-0.410040207E-1,-0.367913838E-2,0.483301032E-3,-0.252901427E-1,0.374706313E-1,0.974063694,-0.143629638E-1,-0.691169128E-2,0.414532237E-1,0.140377861E-1,0.327335671E-1,-0.276654568E-1,-0.455706082E-1,-0.338257924E-1,0.256341323E-1,-0.378504321E-1,-0.516341440E-2,-0.996632781E-2,0.218930300E-1,-0.355112948E-2,0.225331262E-1,-0.213623736E-1,-0.288749300E-1,0.444517285E-1,-0.192696229E-1,0.102362670E-1,0.400232710E-1,0.305117387E-1,-0.950334873E-2,0.654399209E-2,-0.754980976E-2],
                 "bias": 0.351821259E-1
             },
             {
                "weights": [-0.156477988E-1,0.232299492E-1,0.534597039E-2,0.207758155E-1,0.388961285E-1,0.119322026E-1,-0.826678704E-2,1.04809618,0.339729432E-2,0.186944455E-1,-0.153263696E-1,-0.460212119E-1,0.108811017E-1,0.310940053E-1,-0.496390052E-1,0.458281226E-1,-0.131238429E-1,0.375537015E-1,-0.130889108E-1,0.466806479E-1,0.442673154E-1,0.123900427E-1,0.648418255E-2,-0.497317798E-1,0.197661873E-1,0.445737801E-1,-0.479559153E-1,0.293535069E-1,0.461473912E-1,-0.456049666E-1,-0.195130724E-1,-0.296188854E-1],
                 "bias": 0.459777936E-1
             },
             {
                "weights": [-0.412538163E-1,0.192456748E-1,-0.364868641E-1,0.372468457E-1,0.231481567E-1,0.190649740E-1,-0.444685146E-1,-0.531492429E-2,0.956389904,-0.468155090E-2,-0.311816521E-1,-0.390934050E-1,-0.368493423E-1,-0.359091125E-1,-0.372377560E-1,0.318200551E-1,-0.125764385E-1,-0.235481206E-1,0.429809950E-1,0.381014757E-1,-0.472870693E-1,-0.495523913E-2,0.157796144E-1,0.491077714E-1,0.376551086E-2,0.248643439E-1,-0.368523262E-1,0.375125837E-2,0.247195959E-1,0.232772939E-1,0.105345380E-1,-0.279521644E-1],
                 "bias": 0.478189699E-1
             },
             {
                "weights": [-0.312740915E-2,0.450696573E-1,-0.422887206E-1,-0.696842000E-2,-0.287369471E-1,0.437528118E-1,-0.215711072E-1,-0.328071862E-1,0.807095319E-3,0.996243775,-0.356705021E-2,0.180153304E-2,-0.128030535E-1,-0.464390330E-1,0.502613969E-1,0.152520211E-1,-0.413445048E-1,-0.208778083E-1,-0.201613363E-1,0.731654046E-2,0.427314602E-1,-0.244713090E-1,0.122766085E-1,0.143406671E-1,-0.345442481E-1,-0.921237934E-2,0.603169249E-2,0.403614230E-1,0.313885622E-1,0.816238113E-2,0.316035561E-1,-0.393303297E-1],
                 "bias": 0.289824093E-2
             },
             {
                "weights": [-0.303762052E-1,-0.352729000E-1,0.404654630E-1,-0.262096990E-2,-0.266298745E-1,-0.390678272E-1,-0.903161417E-3,-0.283349417E-1,-0.356507897E-1,0.100791417E-1,0.966305017,0.292051844E-1,-0.138896899E-1,0.128193023E-1,0.194639359E-1,-0.428330228E-1,0.159956533E-1,0.173132028E-1,-0.231377501E-2,-0.410023471E-2,0.162561126E-1,0.417237878E-1,0.177891199E-1,0.251887343E-2,0.637005549E-2,0.504220389E-1,-0.172802284E-1,0.144574763E-1,-0.455304608E-1,0.124955093E-1,0.255035125E-1,0.488933511E-1],
                 "bias": -0.258743428E-1
             },
             {
                "weights": [-0.449668104E-2,-0.100259390E-1,-0.213248730E-1,0.236410629E-1,0.306241922E-1,-0.168740805E-1,-0.456170961E-1,0.515203252E-1,-0.123780109E-1,-0.108958222E-2,-0.184807144E-1,1.01688838,-0.264893435E-1,-0.448265076E-1,-0.266988650E-1,0.431133285E-1,-0.701212976E-2,0.390898697E-1,-0.145131648E-1,0.313733742E-1,0.385266021E-1,-0.126111349E-1,0.392298102E-1,0.234290063E-1,-0.325971320E-1,-0.351691321E-1,0.172420107E-1,-0.458070636E-1,0.200840086E-1,0.362754688E-1,0.287144259E-1,0.240340438E-1],
                 "bias": 0.460308418E-1
             },
             {
                "weights": [0.446945950E-1,0.230657812E-1,0.329338908E-1,-0.410818914E-2,0.466850176E-1,0.443568714E-1,0.100176381E-1,-0.426143631E-1,-0.483056530E-1,-0.451746993E-1,-0.260452349E-1,-0.363284685E-1,0.978859305,-0.430435911E-1,-0.691065053E-2,0.129933227E-1,-0.275229253E-1,0.120768771E-1,0.288444534E-1,0.238736011E-1,-0.481815189E-1,-0.133488355E-1,0.382978632E-2,0.354569405E-1,-0.337106735E-2,-0.386542268E-1,0.871746428E-2,0.252190828E-1,0.496670231E-1,0.457375124E-1,0.401570350E-1,-0.324536301E-1],
                 "bias": 0.383063741E-1
             },
             {
                "weights": [0.211546067E-1,-0.460964143E-1,0.399425663E-1,0.495613068E-1,-0.178822968E-1,0.509529598E-1,-0.422534235E-1,0.302742291E-1,0.537511818E-1,0.422102697E-1,0.113749986E-3,0.159273539E-1,-0.273122974E-1,0.981275618,-0.117850408E-2,0.239268690E-1,0.401446782E-1,-0.210264400E-1,-0.656309258E-2,-0.626014313E-2,0.140371360E-1,0.514415167E-1,-0.220283829E-1,-0.251834281E-1,-0.994370691E-2,-0.444985852E-1,-0.441174395E-1,0.225244612E-1,-0.192847755E-2,0.922131701E-3,-0.367275141E-1,0.118467584E-1],
                 "bias": 0.157398395E-1
             },
             {
                "weights": [-0.800904166E-2,-0.437095612E-1,-0.305680502E-1,-0.143029276E-3,0.327446796E-1,-0.108310077E-1,0.489136055E-1,0.320725031E-1,-0.490590446E-1,-0.193144120E-1,-0.330023132E-1,0.188283827E-1,0.286630122E-2,0.312488284E-1,1.04558504,-0.119648408E-2,0.476251841E-1,0.139984442E-1,-0.359443501E-1,-0.218631271E-1,0.214526933E-1,-0.138515085E-1,-0.272271875E-1,-0.729098590E-2,-0.390927168E-2,0.240739528E-1,0.195755344E-1,-0.626405282E-2,0.358021446E-1,-0.123573970E-1,-0.254661273E-1,0.145608641E-2],
                 "bias": 0.298261028E-1
             },
             {
                "weights": [-0.319457315E-1,-0.249364432E-1,0.128684975E-1,0.497932211E-1,-0.373558253E-1,-0.364514589E-1,0.247743689E-1,0.195036978E-1,-0.387965627E-1,-0.467555895E-1,0.469121151E-3,-0.428735232E-2,-0.407120176E-1,-0.403525904E-1,-0.564581854E-2,1.03808820,-0.247145612E-1,0.146187916E-1,0.116462409E-1,0.315088816E-1,0.263659637E-1,-0.310122711E-2,0.110935429E-1,0.102069322E-1,-0.569700077E-2,0.421830639E-1,0.249735694E-1,0.249285381E-1,-0.421150178E-1,-0.457561798E-1,0.144956307E-1,0.279536378E-1],
                 "bias": -0.200684406E-1
             },
             {
                "weights": [0.622816710E-2,-0.338951163E-1,0.219696830E-2,0.250299298E-2,0.168360025E-1,0.864411239E-2,0.481621400E-1,-0.106765302E-1,0.562833156E-2,0.433710031E-1,-0.335420333E-1,0.478001051E-1,-0.372486818E-2,-0.256055184E-1,0.356660411E-1,-0.230506919E-1,0.997193277,0.387633685E-2,-0.689191790E-2,-0.326117091E-1,0.470417738E-1,0.178798754E-1,0.367888175E-1,0.237982329E-1,-0.442346707E-1,-0.120159406E-1,0.290606488E-1,-0.410438105E-1,-0.454240218E-1,0.194308851E-1,0.108964331E-1,0.118072378E-1],
                 "bias": -0.144766942E-1
             },
             {
                "weights": [0.133835552E-1,-0.254311729E-1,0.363565795E-1,0.157013275E-1,-0.473500267E-1,0.154840993E-1,-0.435882807E-1,0.146055594E-1,0.329222865E-1,-0.440094154E-2,0.145852622E-1,-0.920674123E-3,-0.246512126E-1,0.360953547E-1,-0.783810206E-2,0.250705816E-1,0.450872909E-2,1.04683208,-0.105268217E-2,-0.130138658E-1,-0.490192622E-1,-0.179018461E-3,-0.312886052E-1,-0.443874486E-1,0.159296114E-1,-0.301633775E-1,-0.954114459E-2,-0.371120498E-1,0.253172666E-1,0.360981785E-1,-0.395293906E-1,0.324921161E-1],
                 "bias": -0.306145549E-1
             },
             {
                "weights": [0.305524711E-1,0.211729296E-1,0.958173419E-3,-0.416334085E-1,0.437473170E-1,-0.297176987E-1,-0.459732190E-1,-0.322153196E-1,0.198448151E-1,0.247008372E-1,0.291146263E-1,-0.240486152E-1,-0.737412507E-2,-0.445191603E-3,0.115269851E-1,-0.742296164E-3,-0.535557093E-2,0.189752970E-1,0.958264291,-0.284294412E-1,-0.356710181E-1,-0.641291449E-2,-0.233832803E-1,0.963116705E-3,-0.363312587E-1,-0.405358337E-1,0.429613516E-1,0.211581346E-1,-0.424748845E-1,0.334952548E-1,0.345574394E-1,-0.380300358E-1],
                 "bias": -0.103212120E-1
             },
             {
                "weights": [0.354660153E-1,0.162159204E-1,0.401730463E-1,0.302125774E-1,0.504265465E-1,0.695329206E-2,0.113247358E-2,-0.473547317E-1,0.454002768E-1,0.411049947E-1,-0.170606300E-1,0.849517249E-2,-0.234916583E-1,-0.151454108E-1,-0.625887478E-3,-0.328912809E-1,-0.223830920E-1,-0.429118834E-1,-0.281758476E-1,0.962068379,-0.322869755E-1,-0.108309062E-1,-0.295411777E-1,-0.598965213E-2,0.297153313E-1,-0.462118462E-1,-0.256761387E-1,-0.379159749E-1,0.390300043E-1,-0.701828627E-2,-0.154103488E-1,-0.388584286E-1],
                 "bias": -0.402297415E-1
             },
             {
                "weights": [-0.312992446E-1,0.181898586E-1,-0.112131853E-1,0.491069742E-1,0.126069160E-1,-0.187419262E-1,-0.230641123E-1,0.107740648E-1,-0.301702209E-1,0.111924959E-1,0.262512136E-1,-0.320995711E-1,0.346322879E-1,-0.491551496E-1,0.177540332E-1,-0.307156686E-1,0.272420477E-1,0.140119763E-1,0.258120969E-1,-0.294361319E-1,0.985807478,0.186017752E-1,0.635745004E-2,-0.326766819E-1,0.117138829E-1,0.465972871E-1,0.537093123E-2,0.436081849E-1,-0.185997915E-1,0.318125337E-1,-0.206238702E-1,0.491824858E-1],
                 "bias": -0.385501459E-1
             },
             {
                "weights": [0.467604175E-1,0.133154728E-1,0.223643705E-1,0.488132872E-1,0.411462225E-1,-0.190215055E-1,-0.416669585E-1,-0.284234099E-1,-0.490938425E-1,0.152308280E-1,0.173431300E-1,-0.353998914E-1,-0.265400987E-1,0.340806432E-1,-0.311294347E-1,-0.427466445E-1,-0.113387629E-1,-0.430093743E-1,0.124539174E-1,0.220447853E-1,-0.403361693E-1,0.977536321,0.285575781E-1,0.257986002E-1,0.197568908E-1,0.474378373E-2,-0.168078821E-1,0.432128832E-1,-0.173840672E-1,0.365855992E-1,0.464332215E-1,0.392448455E-1],
                 "bias": 0.903101731E-2
             },
             {
                "weights": [-0.396801531E-1,-0.389927402E-1,-0.121856732E-1,0.318109617E-1,-0.250054430E-1,-0.426956192E-1,0.259674247E-1,0.514070950E-1,0.298392717E-1,0.257989094E-1,-0.379841104E-1,-0.917798933E-2,-0.349022485E-1,0.759314513E-2,-0.427858811E-2,0.110129733E-1,-0.239984207E-1,-0.202427022E-1,0.885966141E-2,0.892558601E-2,0.144937942E-1,0.412303209E-1,1.03965962,0.283464696E-1,-0.112635805E-2,0.397961214E-1,-0.275521576E-1,0.127219744E-1,-0.353447087E-1,-0.155761344E-1,-0.110649248E-2,0.287098661E-1],
                 "bias": 0.182789043E-1
             },
             {
                "weights": [-0.607979717E-2,-0.138571045E-5,-0.129280454E-1,0.181282833E-1,-0.106302593E-1,0.238048099E-1,-0.424737036E-1,0.369342254E-2,0.871723704E-2,0.361176468E-1,-0.195942502E-1,-0.193817858E-1,-0.326081142E-1,-0.731815677E-2,0.182953272E-1,0.398270488E-1,0.215958189E-1,0.141407596E-1,0.460098945E-1,0.282147676E-1,-0.338719110E-2,0.314651839E-1,-0.214855373E-1,1.04044616,-0.352785294E-2,-0.228921305E-1,0.336573273E-1,0.188802311E-2,-0.240207557E-1,-0.113074724E-1,-0.211411379E-1,0.268083997E-1],
                 "bias": -0.438174419E-1
             },
             {
                "weights": [-0.153978483E-2,-0.361633487E-1,-0.563403359E-2,-0.316305868E-1,0.449338742E-1,-0.114176329E-1,-0.236240178E-1,0.182971880E-1,-0.281407870E-1,0.417441688E-2,-0.214340608E-2,0.362497903E-1,-0.249119569E-1,0.414406657E-1,-0.391004309E-1,0.219070427E-1,-0.263153296E-1,-0.605148636E-2,-0.131888222E-1,-0.211826209E-1,0.289109834E-1,0.318668559E-1,-0.416750312E-1,-0.817528181E-2,0.980784297,-0.686039263E-2,0.374856293E-1,-0.452227332E-1,-0.445192605E-1,-0.363468118E-1,-0.367604233E-1,-0.808636006E-2],
                 "bias": 0.182618655E-2
             },
             {
                "weights": [-0.369027667E-1,0.339049287E-2,-0.862606801E-2,0.426505646E-2,0.101722637E-1,-0.690910965E-2,0.490854569E-1,0.173046887E-1,0.512352325E-1,0.168826729E-1,0.277859252E-1,0.342829004E-1,0.266126618E-1,-0.195393395E-1,0.164342057E-1,0.412198491E-1,-0.124043121E-2,0.410484821E-1,-0.165310483E-1,-0.590802450E-2,0.422691107E-1,-0.100893145E-1,0.135046160E-1,-0.189190600E-1,-0.394200385E-1,0.998074293,0.416989699E-1,0.325840637E-1,-0.971839111E-2,-0.246291757E-1,0.263672546E-1,-0.477493331E-1],
                 "bias": -0.107478518E-1
             },
             {
                "weights": [0.420107320E-1,-0.886371173E-2,-0.311701410E-1,0.208907630E-1,0.175737068E-1,-0.169897228E-1,0.358358398E-1,-0.351632014E-1,0.156866480E-2,0.188066773E-1,0.487014316E-1,0.166238856E-2,-0.483227931E-1,0.808577798E-2,-0.105376979E-1,-0.257213600E-1,-0.262904651E-1,0.840521883E-2,0.485570468E-1,-0.637905614E-3,-0.266261143E-2,-0.672486098E-2,-0.231627412E-1,-0.415062867E-1,0.194290075E-1,0.780084403E-2,0.991862416,0.311862510E-1,0.215821923E-2,0.699401554E-2,0.353355147E-1,0.177504625E-1],
                 "bias": 0.174719095E-1
             },
             {
                "weights": [-0.379356882E-2,-0.425814558E-2,0.108541399E-1,-0.158436932E-1,0.270162639E-2,-0.396815203E-1,0.470226593E-1,-0.386319347E-1,-0.464740815E-2,0.254449043E-1,0.350200385E-1,0.326830037E-1,-0.221720915E-1,0.313317068E-1,-0.345298089E-1,0.227401406E-1,0.223465208E-1,-0.121710193E-2,0.417144895E-1,-0.161347203E-1,0.424404442E-1,0.235550441E-1,-0.253952928E-1,-0.194479187E-2,-0.333962813E-1,0.165575035E-1,0.261685271E-1,0.985122919,-0.292746723E-1,-0.381701882E-2,-0.175246429E-1,0.365328491E-1],
                 "bias": 0.460652709E-1
             },
             {
                "weights": [0.199353322E-2,0.279272646E-1,0.126861790E-1,-0.446590744E-1,-0.143409399E-1,-0.947115757E-2,0.870964769E-2,0.497596748E-1,0.106678223E-1,0.363497213E-1,-0.391884185E-1,-0.212097820E-1,0.503322706E-1,0.148824397E-1,0.492060557E-1,-0.187865458E-1,0.458525456E-1,0.854888000E-2,0.467853248E-1,0.500916913E-1,-0.333083607E-1,0.103901485E-1,0.415174402E-1,-0.373704024E-1,-0.121984454E-1,-0.617359392E-2,-0.406421907E-1,0.139436470E-1,0.966732502,-0.381414071E-1,0.282772407E-1,-0.187252667E-1],
                 "bias": 0.322120897E-1
             },
             {
                "weights": [-0.398617275E-1,0.108508533E-1,-0.799196865E-2,-0.244947318E-1,-0.253699813E-1,-0.207687598E-1,0.423537344E-1,0.200559013E-1,-0.207033139E-1,0.306097716E-1,0.474718995E-1,-0.751728192E-2,-0.230488237E-1,-0.264051054E-1,0.278745517E-1,0.616794033E-2,-0.955590792E-2,-0.107460665E-1,-0.336725004E-1,0.328400582E-1,-0.127805118E-1,0.171033908E-1,0.121923760E-1,-0.424983492E-2,-0.682056823E-3,0.499733686E-1,-0.576207740E-2,0.774634490E-2,-0.108990427E-1,0.957980156,0.348906256E-1,-0.157865919E-1],
                 "bias": -0.161335152E-1
             },
             {
                "weights": [-0.358054452E-1,-0.416723266E-1,0.404167473E-1,0.509203635E-1,-0.415606089E-1,0.449957587E-1,0.196955241E-1,0.375599451E-1,0.917163771E-2,-0.187404286E-1,-0.228623990E-1,0.342770852E-1,-0.340447426E-1,-0.280037839E-1,0.354998782E-1,-0.380146764E-1,0.173837617E-1,-0.422184765E-1,-0.417930912E-2,-0.243716668E-1,0.966346008E-3,0.243000053E-1,0.376441181E-1,-0.151591245E-1,0.427976437E-2,-0.395649150E-1,-0.191385429E-1,0.200663600E-2,0.437639393E-1,-0.423301309E-1,0.989223838,-0.325004868E-1],
                 "bias": -0.412542894E-1
             },
             {
                "weights": [0.338548310E-1,0.169474892E-1,0.193793084E-1,-0.142858494E-1,0.509967282E-1,-0.235804357E-1,0.308689233E-1,-0.426140353E-1,-0.460342728E-1,0.398699045E-1,-0.212345421E-1,0.270649474E-1,0.216209739E-1,-0.301784296E-1,-0.260030888E-1,0.513987020E-1,0.393390283E-1,-0.260988269E-1,0.100263106E-1,0.875776459E-3,-0.469853319E-1,0.402477942E-2,0.244231187E-1,0.519362353E-1,0.226278082E-1,-0.476584807E-1,-0.277992133E-1,0.168693028E-1,-0.318227783E-1,-0.104164630E-1,-0.259853490E-1,0.971901119],
                 "bias": 0.514342114E-1
             }
         ]
     ],
     "output_layer": [
             {
                "weights": [0.994921207,-0.308727417E-1,-0.576126203E-1,-0.264468733E-1,-0.631798059E-1,-0.258889347E-1,-0.612611547E-1,0.388420117E-2,-0.776968896E-1,-0.430414230E-1,-0.179883894E-1,-0.388584211E-1,-0.536968112E-1,-0.613805614E-1,-0.388195403E-1,-0.721957386E-1,-0.600144379E-1,-0.713290507E-2,-0.278338380E-1,-0.681442693E-1,0.249282783E-2,-0.777290165E-1,-0.125112822E-1,0.959056022E-3,-0.380239636E-1,-0.607476160E-1,0.255625765E-2,-0.668669939E-1,-0.740274563E-1,-0.722733140E-1,-0.769839585E-1,-0.695367754E-1],
                 "bias": -0.748740211E-1
             },
             {
                "weights": [-0.693483055E-1,0.993167341,-0.195172448E-1,-0.621494278E-1,0.762509182E-2,-0.684147850E-1,0.586161343E-2,-0.183509309E-1,-0.129565774E-1,-0.584175102E-1,-0.184048209E-1,-0.605166629E-1,0.866619498E-2,-0.549105406E-1,0.149081191E-1,-0.712665496E-3,-0.496719033E-1,0.308248848E-1,0.133204348E-1,-0.243471544E-1,0.263989288E-1,-0.441643000E-1,0.718713505E-2,-0.425256006E-1,0.126345893E-1,-0.620520767E-2,0.269926470E-1,0.215716865E-1,0.251402636E-2,-0.293648038E-1,0.314697735E-1,-0.601465441E-1],
                 "bias": -0.118766325E-1
             },
             {
                "weights": [-0.251739807E-1,-0.473031290E-1,0.936286867,-0.749548227E-1,-0.871158913E-1,-0.784182623E-1,-0.854890868E-1,-0.522728860E-1,-0.162193272E-1,0.293953135E-2,-0.560034700E-1,-0.412865244E-1,0.260901311E-2,-0.849773809E-1,-0.723395273E-1,-0.236410201E-1,0.464288099E-2,-0.719137117E-1,0.340794073E-2,-0.440605395E-1,-0.654659979E-2,-0.287828054E-1,-0.468651280E-1,-0.655439571E-1,0.771846389E-2,-0.863477141E-1,0.102730496E-1,-0.780711994E-1,-0.488663092E-1,-0.552271046E-1,-0.773137882E-1,-0.763277933E-1],
                 "bias": -0.104845814
             },
             {
                "weights": [-0.132203400,-0.798015743E-1,-0.155931011,0.854301751,-0.948327184E-1,-0.986457244E-1,-0.679660141E-1,-0.705627427E-1,-0.636048764E-1,-0.141466662,-0.148252383,-0.112555176,-0.795865580E-1,-0.150673389,-0.710414723E-1,-0.106714316,-0.762764439E-1,-0.852295086E-1,-0.142223969,-0.748733431E-1,-0.968883261E-1,-0.685295463E-1,-0.100696027,-0.148028031,-0.133312374,-0.101341315,-0.126808524,-0.135030583,-0.119284719,-0.109452248,-0.152530089,-0.789207444E-1],
                 "bias": -0.158157468
             },
             {
                "weights": [0.832955018E-1,0.268997252E-1,0.125993928E-1,0.556953214E-1,1.08072495,0.846420452E-1,0.235078353E-1,0.292324442E-1,0.914362147E-1,0.288265869E-1,0.594979674E-1,0.742418915E-1,0.103841513,0.106276028,0.303838775E-1,0.346164741E-1,0.123712951E-1,0.122419149E-1,0.814327672E-1,0.998221561E-1,0.620602295E-1,0.230710600E-1,0.909276307E-1,0.160469804E-1,0.918169413E-2,0.517390519E-1,0.958997086E-1,0.646372288E-1,0.876750797E-1,0.103316963,0.607717484E-1,0.107872009],
                 "bias": 0.140223622
             }
     ]
}
